window.LTV_MODEL = {"description": "Listener LTV MLP. Predicts standardized log1p(LTV).", "numeric_features": ["tenure_months", "avg_daily_minutes", "active_days_per_month", "skip_rate", "playlists_created", "discount_rate"], "categorical_features": {"plan_tier": ["Student", "Standard", "Premium", "Family"], "acquisition_channel": ["organic", "paid_social", "referral", "label_partner", "playlist_placement"], "region": ["NA", "EU", "LATAM", "APAC", "Other"]}, "feature_order": ["tenure_months", "avg_daily_minutes", "active_days_per_month", "skip_rate", "playlists_created", "discount_rate", "plan_tier=Student", "plan_tier=Standard", "plan_tier=Premium", "plan_tier=Family", "acquisition_channel=organic", "acquisition_channel=paid_social", "acquisition_channel=referral", "acquisition_channel=label_partner", "acquisition_channel=playlist_placement", "region=NA", "region=EU", "region=LATAM", "region=APAC", "region=Other"], "numeric_mean": [13.960916345050588, 38.95760769792427, 15.618252842390739, 0.47721179201001357, 3.45645144466465, 0.23104708980911653], "numeric_std": [9.792352314806553, 23.097325887118668, 4.962405672338699, 0.1827596670033246, 2.80999364831158, 0.1467553017241838], "target": {"log1p": true, "mean": 2.9228331637384737, "std": 0.9218481040061735}, "activation": "relu", "layers": [{"W": [[0.20760995149612427, 0.36051881313323975, -0.26045751571655273, -0.02607407607138157, -0.01611727848649025, 0.382068008184433, 0.08260797709226608, -0.11549156159162521, 0.1158868670463562, -0.6385012865066528, 0.16096341609954834, -0.18628567457199097, -0.1761873960494995, 0.4598347544670105, 0.2890563905239105, 0.041423581540584564, -0.04670901596546173, -0.3311904966831207, -0.007050031796097755, -0.34429314732551575, -0.06288096308708191, -0.14058257639408112, 0.03218572959303856, -0.01565818302333355, 0.20206524431705475, 0.17011268436908722, 0.08736363798379898, 0.3522180914878845, -0.02672567591071129, 0.03897985816001892, -0.08941297233104706, 0.1523413062095642, 0.2272188365459442, -0.8749580383300781, -0.412326842546463, -0.04898235574364662, 0.003564167534932494, 0.12442775070667267, -0.2872260808944702, 0.10647767782211304, -0.13689455389976501, 0.10537058115005493, 0.1459236443042755, 0.02541649527847767, -0.38165417313575745, -0.12359829992055893, -0.09922420978546143, 0.15485447645187378, 0.26685383915901184, 0.17678581178188324, -0.1684628576040268, -0.17615212500095367, -0.35774222016334534, 0.4584226906299591, 0.06481292843818665, -0.01975397765636444, -0.47516608238220215, 0.05555258318781853, -0.3545170724391937, -0.734732985496521, 0.03818167746067047, 0.07767673581838608, -0.44400525093078613, 0.24748240411281586], [0.34222766757011414, -0.02535896562039852, 0.05028219148516655, -0.39126813411712646, 0.18821828067302704, -0.3614840805530548, 0.30543798208236694, 0.3236514925956726, -0.04488950967788696, 0.051751602441072464, -0.3442908823490143, -0.25327154994010925, -0.10644077509641647, 0.3196435868740082, 0.16158553957939148, -0.014685336500406265, -0.1503368318080902, -0.29507964849472046, -0.14365093410015106, 0.03580579161643982, 0.11999477446079254, 0.33542874455451965, 0.1883070021867752, -0.11539926379919052, 0.0809512585401535, -0.030491044744849205, 0.030673908069729805, -0.16135409474372864, 0.34589624404907227, 0.043659649789333344, -0.28176969289779663, 0.01442005019634962, -0.4064510464668274, 0.07973482459783554, 0.11148373782634735, 0.35880717635154724, -0.16544543206691742, 0.02271169424057007, -0.12636642158031464, -0.09546442329883575, 0.026978354901075363, 0.07409408688545227, 0.17396150529384613, -0.2646428048610687, -0.00398778822273016, -0.019764717668294907, -0.08365664631128311, -0.2612694501876831, -0.23324158787727356, -0.19005416333675385, 0.02343786135315895, 0.2305656224489212, 0.04504582658410072, 0.013952814042568207, -0.038641855120658875, -0.04227114096283913, -0.2409324198961258, -0.4329400062561035, -0.4575392007827759, -0.3415469229221344, -0.195404514670372, 0.51423579454422, 0.11528905481100082, -0.41051894426345825], [0.09953569620847702, 0.33647242188453674, -0.3008635938167572, -0.16218644380569458, -0.09094180911779404, -0.05193439871072769, 0.1468610018491745, 0.1432400345802307, 0.204011008143425, 0.01731301285326481, 0.2308814525604248, 0.177666574716568, 0.04980198293924332, 0.16663579642772675, -0.13344772160053253, 0.10064756870269775, -0.12363092601299286, -0.09636284410953522, 0.0543656051158905, 0.05694754049181938, -0.0626276284456253, -0.10416610538959503, 0.12764830887317657, -0.20097026228904724, -0.16360361874103546, 0.19470463693141937, -0.015789521858096123, -0.08509785681962967, 0.11280478537082672, 0.01415012776851654, 0.2405604124069214, -0.012555083259940147, 0.2732597291469574, -0.20430316030979156, 0.23484404385089874, -0.2554799020290375, 0.06689102947711945, 0.011133291758596897, 0.11249741166830063, 0.03607838973402977, -0.0810190960764885, 0.14172539114952087, -0.01537819392979145, -0.11061298102140427, -0.09366980940103531, -0.12935630977153778, 0.02515987679362297, -0.1075953021645546, 0.21142931282520294, -0.14823080599308014, 0.1164291575551033, 0.02841617539525032, -0.17763306200504303, -0.08572134375572205, -0.012191842310130596, 0.19542822241783142, -0.032948579639196396, -0.2252083420753479, 0.1474696546792984, -0.137791708111763, 0.07449191063642502, 0.09063173085451126, 0.041987910866737366, -0.24020208418369293], [0.18178029358386993, -0.3342059254646301, 0.07951988279819489, 0.23938004672527313, 0.22751857340335846, 0.39032232761383057, -0.020039260387420654, 0.1157182902097702, 0.10758338123559952, -0.24392861127853394, -0.017948763445019722, -0.1205747127532959, 0.2764497399330139, -0.06353432685136795, 0.06034112349152565, 0.0061897169798612595, 0.16098938882350922, -0.3592243790626526, -0.2722949683666229, -0.3111925721168518, 0.3677156865596771, -0.3057357370853424, 0.07149361073970795, 0.20560729503631592, -0.0561685785651207, -0.29801130294799805, -0.1627090722322464, -0.4838285446166992, 0.03497294336557388, -0.17583970725536346, 0.18603089451789856, 0.21386434137821198, -0.0031414846889674664, -0.046500395983457565, 0.25467944145202637, -0.018298249691724777, 0.08383913338184357, -0.05198175460100174, -0.29897066950798035, -0.06747651845216751, 0.06628062576055527, -0.26254716515541077, -0.17448334395885468, -0.21346378326416016, -0.47155457735061646, 0.11192182451486588, 0.060029543936252594, 0.017056310549378395, -0.39282867312431335, 0.3537115454673767, 0.12075549364089966, 0.05627533048391342, 0.06998935341835022, -0.05226941406726837, 0.1889553666114807, -0.40134620666503906, 0.014722038060426712, 0.18406648933887482, 0.23966458439826965, 0.23530109226703644, -0.08855199813842773, 0.23136542737483978, -0.2851783037185669, 0.022822102531790733], [-0.002497026463970542, 0.1732686161994934, 0.11006046831607819, -0.07661882042884827, -0.06145215407013893, -0.07443005591630936, 0.12648062407970428, 0.18411444127559662, -0.008483939804136753, -0.31818389892578125, -0.03813575580716133, -0.07688818126916885, 0.020617393776774406, -0.1601632833480835, -0.15178155899047852, 0.12529289722442627, 0.08410656452178955, -0.19743137061595917, -0.34552237391471863, -0.13602019846439362, -0.07167592644691467, 0.05576134845614433, -0.12422853708267212, 0.033691998571157455, 0.0018646055832505226, 0.38610735535621643, -0.3766634464263916, -0.36467355489730835, 0.20465371012687683, 0.0555977039039135, -0.13312377035617828, 0.11158972233533859, 0.47676903009414673, -0.13654910027980804, 0.2726655900478363, -0.31033846735954285, -0.22437183558940887, 0.0794578343629837, 0.028053324669599533, -0.043837908655405045, 0.28005513548851013, -0.1538315713405609, -0.0295286662876606, -0.05197899043560028, 0.053373612463474274, -0.1472945362329483, -0.0027505720499902964, 0.06138015538454056, 0.05638803541660309, -0.21146734058856964, -0.18026231229305267, 0.012029554694890976, -0.007059403229504824, 0.036188241094350815, -0.26790857315063477, -0.11141418665647507, -0.16330766677856445, -0.23536476492881775, -0.08694634586572647, -0.060563359409570694, -0.1922863870859146, -0.042097434401512146, 0.37605395913124084, -0.317748099565506], [-0.24923193454742432, 0.2567986249923706, -0.24707645177841187, 0.252277135848999, 0.423365980386734, -0.23876959085464478, -0.1592460721731186, -0.03606891632080078, -0.09918268024921417, 0.17083586752414703, -0.03306138515472412, -0.3274121582508087, 0.4175477921962738, -0.030791958793997765, -0.3323245346546173, -0.16474121809005737, -0.058191828429698944, -0.0672825500369072, 0.0317782461643219, 0.2382945418357849, -0.04412480816245079, -0.36064597964286804, 0.0017124871956184506, 0.07576312869787216, -0.0009488017531111836, -0.054483234882354736, -0.02346203848719597, 0.07581236213445663, 0.016759231686592102, 0.3150096833705902, -0.2088324874639511, -0.008602515794336796, 0.2338981181383133, 0.05266496166586876, 0.007503546308726072, -0.0021197423338890076, -0.26278162002563477, 0.43683239817619324, 0.19312839210033417, -0.3046884536743164, 0.23810699582099915, 0.09055342525243759, 0.15692247450351715, 0.3083012104034424, 0.04629798233509064, 0.1320754736661911, -0.33098870515823364, -0.20098727941513062, -0.2092021405696869, 0.45405808091163635, -0.2910894453525543, 0.2206687480211258, 0.016845960170030594, 0.1718546599149704, 0.2148875892162323, -0.3048398792743683, 0.06219247728586197, 0.22532787919044495, 0.08958699554204941, 0.05955331772565842, -0.008328151889145374, 0.0416644886136055, 0.05333159863948822, 0.13084235787391663], [-0.1737615466117859, -0.06516355276107788, 0.07867257297039032, 0.30149492621421814, -0.18810784816741943, 0.05012926459312439, 0.28893333673477173, -0.394024133682251, -0.07806209474802017, -0.5314733982086182, -0.2983061969280243, 0.3739990293979645, 0.32662561535835266, -0.5963310599327087, -0.4025784134864807, -0.5188717842102051, 0.5501089096069336, 0.0005072359926998615, -0.28906869888305664, -0.03456490859389305, 0.157003253698349, -0.7493489384651184, -0.37220558524131775, -0.23876953125, 0.5361998081207275, -0.15937748551368713, -0.41880279779434204, -0.5788902044296265, -0.19645659625530243, -0.26339614391326904, -0.28209298849105835, -0.355328232049942, -0.5404259562492371, -0.024760490283370018, 0.3663742244243622, -0.3318066895008087, 0.4996839463710785, 0.21865560114383698, 0.2384071797132492, -0.21604463458061218, 0.4347781240940094, 0.5706767439842224, -0.3931916356086731, 0.1696709245443344, -0.2778565287590027, 0.1798483282327652, -0.40227195620536804, 0.005134371109306812, 0.042844418436288834, 0.5186695456504822, -0.05804967135190964, 0.40752673149108887, 0.3706812858581543, 0.25793296098709106, -0.2708376944065094, -0.32709798216819763, 0.04007507115602493, 0.10194141417741776, -0.10079625993967056, -0.2745351195335388, 0.16132628917694092, 0.1517084687948227, -0.21997205913066864, -0.3738204538822174], [0.12582199275493622, 0.05705075338482857, 0.3624361753463745, -0.1297057867050171, -0.2862120270729065, 0.3572699725627899, -0.854895830154419, -0.4102874994277954, -0.30662697553634644, 0.06642607599496841, -0.05107521638274193, -0.33537065982818604, 0.11440612375736237, -0.055861763656139374, 0.07551854103803635, -0.2927039563655853, 0.23408915102481842, 0.3239996135234833, 0.07169109582901001, -0.4024323523044586, 0.3897731900215149, 0.2999846339225769, -0.24991531670093536, -0.21009714901447296, 0.30692341923713684, -0.5137504935264587, 0.4371241629123688, 0.435883104801178, -0.16914258897304535, -0.4507744014263153, -0.26697561144828796, -0.19716580212116241, 0.24704013764858246, 0.07960487902164459, -0.14136357605457306, -0.1372486650943756, -0.20507650077342987, 0.030751416459679604, 0.18498870730400085, -0.044813938438892365, 0.16545309126377106, 0.16216710209846497, 0.2520614564418793, -0.0811850056052208, 0.27724871039390564, -0.01647196337580681, -0.4216037094593048, -0.2761475443840027, 0.00016632590268272907, -0.06436094641685486, 0.17257067561149597, 0.3861330449581146, 0.28016647696495056, 0.09051106870174408, 0.09705480188131332, -0.2573806941509247, 0.10911814868450165, -0.31369200348854065, -0.2279563546180725, -0.24443453550338745, -0.2588823437690735, 0.1398157775402069, -0.09580587595701218, 0.5315008759498596], [0.2762243151664734, -0.1055760309100151, -0.16911782324314117, -0.15504349768161774, -0.04042768105864525, -0.04114482179284096, -0.5268860459327698, 0.010857202112674713, 0.0722358301281929, 0.10316946357488632, 0.06420734524726868, -0.35129374265670776, -0.3604128360748291, -0.03146525099873543, 0.096277616918087, -0.1671413779258728, 0.02291625365614891, 0.12318934500217438, 0.14063169062137604, 0.03625388815999031, 0.034139759838581085, -0.11451757699251175, 0.4223804473876953, -0.14648346602916718, 0.29816073179244995, 0.3726135492324829, -0.2916991412639618, 0.13805511593818665, 0.3620164096355438, 0.16379182040691376, -0.18979088962078094, 0.010772595182061195, -0.2644888162612915, 0.06180325895547867, -0.06151153892278671, -0.03874330595135689, -0.3531562089920044, -0.06884726881980896, -0.20141516625881195, -0.06702248007059097, 0.003726201131939888, -0.2634226083755493, 0.18383529782295227, -0.43713223934173584, 0.03218557685613632, -0.13120137155056, 0.16599597036838531, 0.24619770050048828, -0.2786867916584015, -0.06903129070997238, 0.0322771891951561, -0.16219709813594818, -0.2967584431171417, -0.1746661216020584, 0.3669213056564331, 0.02812415547668934, -0.3350191116333008, -0.1713952124118805, 0.12169227004051208, 0.07617868483066559, 0.41877296566963196, 0.10234943777322769, -0.2563394606113434, 0.35083019733428955], [-0.05280793085694313, 0.13777638971805573, -0.1684246063232422, -0.3956294357776642, 0.06776086241006851, -0.25736871361732483, -0.4954383075237274, 0.2706412672996521, 0.2737963795661926, 0.12765485048294067, -0.21147367358207703, 0.3252626061439514, 0.19094553589820862, 0.05713983252644539, 0.10583316534757614, 0.5601441264152527, 0.0600288063287735, 0.4196028411388397, 0.08934959769248962, 0.008874240331351757, 0.3081192970275879, 0.2621404528617859, 0.4426109492778778, 0.10117142647504807, -0.15675677359104156, 0.4363744854927063, -0.21255581080913544, 0.5868203043937683, 0.640322208404541, 0.39833030104637146, -0.1986929476261139, 0.17391973733901978, 0.0481654591858387, -0.21554680168628693, -0.3079778254032135, -0.41660675406455994, -0.17357246577739716, -0.4400448203086853, -0.1862824559211731, 0.2116091251373291, -0.07223299145698547, 0.06083894148468971, 0.4453853368759155, 0.011010565795004368, -0.06704477220773697, -0.23047366738319397, 0.13168492913246155, -0.14373432099819183, 0.18274837732315063, -0.5226991176605225, 0.33995139598846436, -0.0017681296449154615, -0.319614052772522, 0.06317359209060669, -0.4844369888305664, 0.527664065361023, -0.2015736997127533, 0.009966349229216576, 0.16743104159832, -0.0968787744641304, 0.23847417533397675, 0.06711826473474503, 0.11662950366735458, 0.13351620733737946], [0.22393299639225006, 0.07789522409439087, 0.2422908991575241, -0.1350216269493103, -0.2605583965778351, -0.13106600940227509, -0.09492144733667374, 0.18144556879997253, -0.2966826558113098, -0.11143089085817337, 0.2513628900051117, -0.31642284989356995, -0.0675618126988411, 0.08204267174005508, -0.25506964325904846, 0.0264632198959589, -0.31710585951805115, 0.12967810034751892, 0.1582549810409546, 0.3986121416091919, 0.2563273012638092, 0.07523804157972336, 0.04532743617892265, -0.05966457352042198, 0.29404374957084656, 0.0872676894068718, -0.05510331690311432, 0.4040137231349945, 0.3204990029335022, -0.1068711131811142, -0.07089457660913467, 0.3733932375907898, 0.3561481535434723, -0.36650800704956055, -0.132428839802742, 0.19717422127723694, -0.035858746618032455, -0.26591745018959045, 0.429386168718338, 0.470602422952652, 0.39785856008529663, -0.09837335348129272, 0.13141173124313354, -0.11310096830129623, -0.27842122316360474, -0.0065290844067931175, 0.14130111038684845, -0.00833740271627903, -0.3131228983402252, 0.012047047726809978, 0.09433665871620178, -0.2633644938468933, -0.07759101688861847, 0.10080955922603607, 0.049316879361867905, 0.08478866517543793, -0.259152889251709, 0.12163514643907547, 0.21325649321079254, -0.09801262617111206, 0.08107616752386093, -0.1645975112915039, -0.044166356325149536, 0.07573248445987701], [0.2785499691963196, -0.04497320577502251, -0.22672265768051147, 0.2985983192920685, 0.3045737147331238, -0.19777868688106537, -0.5514329671859741, 0.155454620718956, 0.11459807306528091, 0.3624469041824341, -0.35693439841270447, 0.1503455489873886, 0.27103832364082336, -0.1748982071876526, 0.40718525648117065, 0.2747230529785156, 0.4909469187259674, 0.07658154517412186, -0.24004217982292175, 0.08985543251037598, -0.33991146087646484, 0.23393277823925018, -0.055037230253219604, 0.17042265832424164, 0.5457716584205627, -0.22807766497135162, -0.015870407223701477, -0.38836073875427246, 0.09181500971317291, 0.27039748430252075, 0.09742484986782074, -0.2722821831703186, 0.031053027138113976, -0.4208385646343231, 0.24874551594257355, -0.26439398527145386, 0.16502226889133453, -0.062428828328847885, -0.18280936777591705, -0.05922192707657814, 0.014160149730741978, 0.1476019322872162, -0.09673378616571426, 0.20701466500759125, -0.14752736687660217, -0.21553675830364227, -0.529167652130127, -0.2129785567522049, -0.23577401041984558, 0.1482786387205124, -0.013610567897558212, -0.07694065570831299, 0.10850436985492706, 0.2034614533185959, 0.5680695176124573, 0.21826773881912231, 0.280099093914032, -0.008795926347374916, -0.16492411494255066, 0.3402910530567169, -0.10047824680805206, -0.2694517970085144, -0.00842288602143526, -0.281089723110199], [0.18768848478794098, 0.0631338357925415, 0.29652079939842224, 0.1489008069038391, 0.6370654106140137, 0.19905328750610352, -0.10918442904949188, 0.13312512636184692, -0.26375123858451843, -0.28029152750968933, 0.11916547268629074, 0.4779736399650574, -0.03769697621464729, -0.10855542123317719, 0.10093092918395996, 0.2677610516548157, -0.21143728494644165, -0.0021756684873253107, -0.24865269660949707, -0.0551384873688221, -0.12465719878673553, 0.10525034368038177, 0.029550185427069664, -0.1280456781387329, -0.18548807501792908, 0.04605379328131676, 0.41981765627861023, 0.3904911279678345, 0.32868918776512146, -0.11528576910495758, -0.11143896728754044, 0.07869741320610046, 0.30790114402770996, 0.23771952092647552, -0.3002501428127289, 0.1036529392004013, 0.053897369652986526, -0.10056036710739136, 0.24093016982078552, -0.09160839021205902, -0.15957209467887878, -0.25227826833724976, -0.08026719838380814, 0.014060741290450096, -0.2574310004711151, -0.09487121552228928, 0.4051865339279175, 0.19004210829734802, 0.2090187668800354, -0.200087308883667, 0.3207548260688782, -0.14098989963531494, 0.1467268168926239, 0.3418582081794739, -0.2136959433555603, 0.4102088212966919, -0.28439900279045105, -0.32387012243270874, -0.2605671286582947, 0.10733824968338013, 0.21890616416931152, -0.5129252076148987, -0.14835627377033234, -0.14644156396389008], [0.08052882552146912, -0.15360645949840546, -0.2758009731769562, -0.23792573809623718, -0.6924064755439758, 0.012446089647710323, 0.09800034761428833, 0.4419516623020172, 0.19280189275741577, -0.16119793057441711, 0.16555878520011902, -0.09627234935760498, -0.355988472700119, 0.01808813028037548, 0.5408191084861755, 0.38280755281448364, -0.17592911422252655, 0.023436494171619415, -0.058729659765958786, 0.530589759349823, 0.011234410107135773, 0.24276308715343475, 0.08070811629295349, -0.1877649575471878, -0.09695221483707428, -0.15419387817382812, -0.0391993373632431, 0.44399991631507874, 0.12375970184803009, -0.5357941389083862, -0.194010391831398, 0.07560935616493225, -0.13783490657806396, 0.11736069619655609, -0.11428657174110413, 0.2300228476524353, -0.3316326439380646, 0.14757221937179565, -0.23417632281780243, -0.05072980374097824, -0.07215900719165802, -0.1248197928071022, 0.4820435643196106, 0.22407065331935883, -0.08916237205266953, -0.2054017037153244, 0.29413068294525146, 0.3745007812976837, -0.007362450938671827, 0.12899675965309143, -0.007692408282309771, 0.2836792469024658, -0.27896103262901306, 0.036981675773859024, 0.10584647953510284, 0.33641505241394043, 0.04106226935982704, -0.34355098009109497, 0.17442455887794495, -0.010994457639753819, 0.20952869951725006, 0.40016576647758484, -0.17541725933551788, 0.19202300906181335], [0.4922701418399811, 0.09444980323314667, -0.5060571432113647, 0.48553603887557983, 0.3529449999332428, 0.20045939087867737, -0.21524469554424286, 0.3122240900993347, 0.18654809892177582, -0.280271053314209, -0.02609318308532238, 0.20121830701828003, 0.39479124546051025, -0.1560673862695694, -0.05082746595144272, 0.2567186653614044, 0.12334876507520676, -0.3659427762031555, 0.14068521559238434, 0.10024165362119675, 0.06805436313152313, -0.16661417484283447, 0.2842341363430023, 0.1699344515800476, -0.07127553224563599, -0.5917838215827942, 0.195066899061203, 0.14982344210147858, 0.14356717467308044, 0.29629096388816833, -0.3701757490634918, 0.33382704854011536, 0.1693354845046997, 0.08765127509832382, -0.10062871128320694, -0.08556848764419556, -0.13983577489852905, -0.11460902541875839, 0.1538233757019043, -0.24783819913864136, -0.02245027758181095, -0.03147747367620468, -0.2534036338329315, 0.01219440158456564, -0.1843908578157425, 0.18645334243774414, 0.48617851734161377, -0.02877485193312168, 0.5451488494873047, 0.19457878172397614, -0.055953413248062134, 0.004008479882031679, -0.17171147465705872, 0.14427942037582397, 0.12803705036640167, 0.10573984682559967, 0.2750340402126312, 0.10898848623037338, 0.17812681198120117, 0.2065708190202713, 0.04143773019313812, -0.048111435025930405, -0.19396302103996277, 0.3252759873867035], [0.04678644984960556, -0.46009406447410583, -0.3092213571071625, 0.07201310992240906, 0.08108820021152496, 0.14659956097602844, 0.11824251711368561, 0.059846121817827225, 0.2652127146720886, -0.13318811357021332, -0.2722863554954529, 0.36321353912353516, 0.30737704038619995, 0.011491782031953335, 0.35915058851242065, 0.4898097515106201, -0.02326825074851513, -0.3253732919692993, 0.1360948085784912, 0.10881899297237396, 0.3771154582500458, 0.19113831222057343, 0.05688058212399483, -0.3471629023551941, -0.3040989935398102, 0.12980838119983673, -0.4679855406284332, -0.22661079466342926, 0.2882116436958313, -0.3879915475845337, 0.26871660351753235, 0.2916235029697418, 0.4112470746040344, -0.24997007846832275, -0.01965835690498352, -0.34328681230545044, -0.006701619364321232, -0.08809629827737808, -0.1681157350540161, 0.26533815264701843, -0.28819093108177185, 0.09806821495294571, 0.23498612642288208, -0.16818423569202423, -0.3808543086051941, -0.005197306163609028, 0.0220676027238369, 0.3361096680164337, 0.05821505934000015, -0.21801255643367767, -0.3604603111743927, 0.15779119729995728, -0.036033667623996735, 0.07133502513170242, 0.011441249400377274, 0.48012271523475647, 0.10144489258527756, 0.05109947547316551, -0.2548520267009735, 0.12985165417194366, -0.018157729879021645, 0.05972724407911301, 0.000125386897707358, 0.3380599021911621], [0.26314210891723633, -0.3257744312286377, 0.12436982989311218, -0.029326776042580605, -0.027045827358961105, 0.04747527465224266, 0.07724529504776001, -0.14135374128818512, -0.12975823879241943, -0.037664394825696945, 0.43158161640167236, 0.1963283121585846, 0.3389306962490082, 0.23785851895809174, 0.2297435700893402, 0.4901641309261322, -0.1493869423866272, -0.13203540444374084, 0.07035671919584274, 0.3167271912097931, -0.48431119322776794, -0.012187724001705647, 0.17333240807056427, -0.43801361322402954, 0.051601335406303406, 0.2850665748119354, -0.04935035482048988, -0.2210952192544937, -0.07614125311374664, 0.03691774606704712, -0.20936541259288788, 0.16772355139255524, 0.06521757692098618, -0.1528618484735489, -0.020374542102217674, 0.27648550271987915, -0.013016280718147755, -0.10009971261024475, -0.12847259640693665, 0.4605061113834381, -0.09176425635814667, 0.012794425711035728, 0.12997592985630035, 0.03140291944146156, 0.27044397592544556, 0.01352953165769577, -0.13777534663677216, -0.028987083584070206, -0.23781317472457886, -0.026625318452715874, 0.111902616918087, -0.4647867679595947, 0.3083617091178894, -0.12373032420873642, 0.11578784883022308, -0.19730523228645325, 0.05751926824450493, 0.14854754507541656, -0.13031427562236786, -0.3222787082195282, -0.11166844516992569, -0.17482838034629822, 0.061014484614133835, 0.06694994866847992], [0.22047889232635498, 0.16719402372837067, -0.067362479865551, 0.130485400557518, -0.06305266916751862, 0.11620458215475082, -0.17171110212802887, 0.40008270740509033, 0.05024976283311844, -0.03095288760960102, -0.4552333950996399, 0.0030539678409695625, 0.1961982697248459, -0.10878539830446243, 0.00245102820917964, -0.12605883181095123, 0.42281612753868103, 0.12165551632642746, -0.21032609045505524, -0.24260163307189941, -0.18991515040397644, 0.1478584110736847, -0.01750381477177143, -0.23557597398757935, 0.16794410347938538, 0.09546518325805664, -0.23551957309246063, -0.38067102432250977, -0.42606106400489807, -0.37963396310806274, -0.10614252835512161, 0.07320307940244675, -0.15365806221961975, -0.12571999430656433, -0.07635635137557983, 0.18724827468395233, 0.20989800989627838, 0.49390020966529846, -0.15775637328624725, -0.003798444988206029, 0.0692576915025711, -0.2765894830226898, 0.1773274689912796, 0.12441740185022354, -0.151068776845932, 0.4843894839286804, -0.17904292047023773, -0.23180854320526123, 0.21239611506462097, 0.2133069783449173, -0.4172317385673523, 0.3145666718482971, 0.329253613948822, 0.10324098914861679, 0.10987015813589096, 0.2289096564054489, 0.26461261510849, -0.2213345766067505, -0.1293036788702011, -0.16877488791942596, 0.48118698596954346, 0.2668564021587372, -0.3450140655040741, -0.07191698253154755], [-0.028719652444124222, -0.040678028017282486, 0.10518751293420792, -0.0733700543642044, -0.3800239562988281, 0.08543688803911209, 0.028589626774191856, -0.02382291853427887, -0.5102527141571045, -0.15079940855503082, 0.07773899286985397, 0.16243939101696014, 0.20173819363117218, -0.15700599551200867, 0.2092560976743698, -0.07371631264686584, 0.17952276766300201, -0.3142833411693573, -0.3669441044330597, -0.05627297982573509, -0.15104332566261292, -0.2864856421947479, 0.1928989440202713, -0.258804589509964, -0.2203349620103836, -0.09526009112596512, -0.19250449538230896, 0.02437981776893139, 0.19100986421108246, 0.07622232288122177, -0.13016004860401154, 0.06427677720785141, -0.044838421046733856, -0.2760917544364929, -0.28487473726272583, -0.138721764087677, 0.07245765626430511, 0.26105010509490967, 0.045054398477077484, -0.13768082857131958, -0.02776944823563099, 0.016899580135941505, 0.06503591686487198, -0.25002607703208923, 0.14017564058303833, 0.36406031250953674, -0.32408398389816284, 0.31633850932121277, -0.11803682893514633, 0.3597811162471771, -0.025983374565839767, -0.15531234443187714, 0.329979807138443, 0.1879989206790924, 0.21227608621120453, 0.0755833089351654, 0.0826522558927536, 0.13735485076904297, 0.016121843829751015, 0.033136721700429916, -0.5965365767478943, -0.3357475697994232, 0.05327415466308594, -0.026843316853046417], [0.10510749369859695, -0.07986824959516525, -0.4374397397041321, 0.4529179036617279, 0.17909157276153564, -0.08995115756988525, -0.09830843657255173, 0.03307175263762474, -0.13884615898132324, -0.00929582491517067, -0.3726697862148285, 0.31487253308296204, 0.3198518753051758, -0.34888187050819397, -0.2562692165374756, 0.04867200553417206, 0.22876562178134918, -0.3129059970378876, -0.019516222178936005, -0.12697958946228027, 0.1428542286157608, -0.17299999296665192, -0.010627875104546547, -0.23582185804843903, -0.31398019194602966, -0.22416718304157257, -0.30750301480293274, -0.01528340857475996, 0.07324784994125366, 0.16393513977527618, 0.1031496524810791, 0.07527658343315125, 0.4620969295501709, -0.20039549469947815, 0.015301031991839409, -0.02020379528403282, -0.06515516340732574, -0.364353209733963, 0.18498550355434418, 0.05374382808804512, 0.010086835362017155, -0.25605496764183044, -0.33916592597961426, 0.05270783230662346, 0.10462121665477753, 0.40224915742874146, -0.31750741600990295, -0.06711355596780777, 0.033898696303367615, 0.26210957765579224, -0.432752400636673, 0.02441808208823204, 0.6252031922340393, 0.3300253450870514, 0.1302034854888916, 0.0651421993970871, -0.36595866084098816, 0.10545987635850906, 0.17820437252521515, 0.05027542635798454, -0.3305912911891937, -0.2124214619398117, 0.04482504725456238, -0.1487899124622345]], "b": [0.11048915237188339, -0.09505046904087067, -0.09223554283380508, 0.14766381680965424, 0.015356848947703838, 0.13929897546768188, -0.10090768337249756, 0.0075723337940871716, -0.019271617755293846, -0.12450147420167923, -0.031152240931987762, 0.10344424843788147, 0.07721327990293503, 0.011337148025631905, 0.08875437825918198, 0.0844607800245285, 0.012207853607833385, -0.03530034050345421, -0.046575915068387985, 0.020998744294047356, 0.018719973042607307, 0.03799616917967796, 0.08615866303443909, -0.19327594339847565, -0.07057100534439087, -0.0126580148935318, 0.011094104498624802, 0.07381905615329742, 0.13995741307735443, -0.05081111565232277, -0.01916792243719101, 0.08825395256280899, 0.04089181870222092, -0.1199372336268425, -0.016812246292829514, 0.05602804571390152, 0.06225871294736862, 0.06453880667686462, -0.007247722242027521, 0.01731349341571331, -0.04657265171408653, -0.021351953968405724, 0.11385317146778107, -0.04079326242208481, -0.06415817886590958, -0.04393419995903969, 0.04982638359069824, 0.12762337923049927, 0.024436945095658302, 0.11632090061903, -0.011567953042685986, 0.018302911892533302, 0.08519905060529709, 0.11767148971557617, 0.13831448554992676, 0.10810442268848419, -0.031105482950806618, 0.045592449605464935, -0.07872558385133743, -0.16456939280033112, -0.0011605856707319617, -0.10189768671989441, 0.0514095313847065, 0.05337430164217949]}, {"W": [[0.010252226144075394, 0.19377018511295319, 0.07140383869409561, -0.19294677674770355, 0.11840889602899551, -0.05502549931406975, 0.07899930328130722, 0.09196648001670837, 0.013249180279672146, -0.28667309880256653, -0.13164390623569489, 0.08087357133626938, -0.09553639590740204, 0.21747331321239471, 0.004206358455121517, 0.00040246130083687603, 0.20713214576244354, -0.05455343797802925, 0.20990876853466034, 0.1131659671664238, -0.211575448513031, 0.007585510611534119, 0.003887631930410862, -0.11548735201358795, -0.10936520993709564, 0.07017269730567932, 0.066006600856781, -0.4004475772380829, 0.1042698472738266, -0.07783190160989761, 0.0756140947341919, 0.0025551277212798595], [0.04301035404205322, -0.02570902556180954, -0.07987610995769501, -0.028985735028982162, 0.10110457986593246, -0.07035084813833237, 0.013407077640295029, -0.04380479082465172, -0.04327905550599098, 0.0762670487165451, -0.26371750235557556, -0.02441210113465786, -0.013798335567116737, -0.10597582906484604, 0.05927634239196777, 0.030561191961169243, -0.051614925265312195, -0.06261975318193436, -0.0003570486733224243, -0.0357636958360672, -0.042575985193252563, -0.03258384019136429, 0.03284193202853203, 0.12663409113883972, 0.09800263494253159, 0.1978495717048645, 0.1404925137758255, 0.0026586391031742096, 0.022495368495583534, 0.050859253853559494, -0.11736777424812317, 0.2337670475244522], [-0.2898920178413391, -0.21973034739494324, 0.13746261596679688, 0.19030143320560455, 0.009552224539220333, -0.012564434669911861, -0.12632417678833008, 0.027955686673521996, 0.12196081131696701, 0.2853004038333893, 0.21812497079372406, 0.04244101420044899, -0.1836908608675003, -0.0944371223449707, 0.15118780732154846, 0.23809519410133362, -0.21711613237857819, -0.00450308620929718, -0.03646601736545563, 0.11701494455337524, -0.1614164263010025, -0.02730454131960869, -0.08290047198534012, 0.008920448832213879, 0.004156603943556547, -0.03459036722779274, -0.07467317581176758, 0.20618344843387604, -0.08884190022945404, -0.05614100396633148, 0.16045606136322021, 0.20938228070735931], [0.07144869863986969, 0.095961794257164, -0.10277214646339417, 0.026296086609363556, 0.22053420543670654, 0.09968557953834534, 0.12853708863258362, -0.08212673664093018, 0.20616307854652405, 0.2686803936958313, -0.13404719531536102, -0.2240706831216812, -0.04498504474759102, 0.14874017238616943, 0.04428057000041008, 0.13496696949005127, 0.14945127069950104, -0.1660708785057068, -0.221655935049057, -0.04342867061495781, 0.13399089872837067, -0.11631496250629425, 0.12057662755250931, -0.14206765592098236, 0.05081455409526825, -0.12681470811367035, -0.013236846774816513, 0.036350030452013016, -0.026236439123749733, -0.2516067922115326, -0.037228744477033615, 0.010714855045080185], [0.3641774654388428, 0.16040290892124176, -0.036621708422899246, -0.1379729062318802, 0.06720668077468872, 0.14602603018283844, 0.22409506142139435, 0.2533733546733856, -0.2396898716688156, 0.021451283246278763, -0.10772016644477844, -0.011677972972393036, -0.15790635347366333, -0.030008533969521523, 0.04421653971076012, -0.05374325439333916, -0.010173309594392776, 0.08353039622306824, -0.16015076637268066, -0.1388264298439026, 0.16034087538719177, 0.08585983514785767, 0.013110282830893993, -0.06349468976259232, -0.19958864152431488, -0.2675876021385193, -0.2638026773929596, -0.13355380296707153, 0.15142688155174255, -0.10966096818447113, -0.02702154591679573, -0.12785688042640686], [-0.06413404643535614, -0.08071242272853851, -0.23629723489284515, -0.04541655257344246, 0.23026376962661743, -0.16101385653018951, -0.16280846297740936, -0.08711280673742294, 0.059991370886564255, 0.06710532307624817, -0.2518485188484192, 0.16908130049705505, 0.06787862628698349, 0.1745511293411255, 0.15026217699050903, -0.16067586839199066, -0.022477874532341957, -0.1376628577709198, -0.11945059895515442, 0.010186543688178062, -0.21648676693439484, -0.00928475335240364, 0.08690272271633148, -0.12032825499773026, -0.3111231029033661, -0.08923453092575073, -0.1523956060409546, -0.1431523561477661, -0.014790368266403675, -0.030478373169898987, -0.050692543387413025, -0.10203418135643005], [0.36222171783447266, -0.14960883557796478, -0.1135321632027626, 0.07228872179985046, 0.1684514731168747, 0.12810692191123962, 0.018514037132263184, -0.2738412022590637, -0.4096311628818512, 0.13243648409843445, -0.32632288336753845, -0.0021154400892555714, -0.07271531969308853, 0.046082038432359695, -0.3538448214530945, 0.014833956956863403, -0.0368022583425045, -0.2259337306022644, -0.06557850539684296, -0.10864608734846115, -0.26616406440734863, 0.13202768564224243, 0.17324091494083405, 0.11700238287448883, 0.1454973816871643, -0.2035108506679535, -0.2350461333990097, -0.019649973139166832, 0.14260275661945343, -0.19165600836277008, -0.3561272919178009, -0.12874288856983185], [0.081004299223423, 0.3061226010322571, -0.17649541795253754, 0.2379336804151535, -0.13580802083015442, -0.15069134533405304, -0.007300295867025852, -0.06502415239810944, -0.10408063232898712, 0.05621015280485153, 0.1397349089384079, -0.19622626900672913, -0.2543497383594513, 0.17240691184997559, 0.15043997764587402, -0.048745907843112946, -0.10828017443418503, 0.21374483406543732, 0.051329489797353745, 0.17187854647636414, -0.05786022171378136, 0.08164338022470474, -0.151758074760437, 0.23680797219276428, -0.0430518239736557, 0.04112450033426285, 0.28297004103660583, -0.1861567497253418, -0.039721883833408356, 0.20833098888397217, 0.1169760674238205, -0.041277576237916946], [-0.12279599159955978, -0.016474757343530655, 0.09480298310518265, -0.056086450815200806, 0.16688977181911469, 0.1739049255847931, -0.02568168193101883, -0.021600207313895226, -0.1903550624847412, -0.1114339828491211, 0.09051107615232468, -0.12252239882946014, 0.03538401424884796, -0.2662992775440216, 0.07527678459882736, -0.10691821575164795, -0.08241865038871765, -0.15906836092472076, 0.1836424618959427, 0.20254620909690857, -0.07449545711278915, 0.07993640005588531, 0.06992941349744797, -0.12404461950063705, -0.23194266855716705, -0.012519543059170246, 0.09078455716371536, -0.007858316414058208, -0.19910237193107605, 0.05320417881011963, -0.1440591812133789, 0.10549978911876678], [0.006917730905115604, 0.06802384555339813, 0.17134085297584534, 0.2759605348110199, -0.06884895265102386, -0.00973435677587986, -0.14908315241336823, 0.14334091544151306, 0.14093424379825592, 0.2209683060646057, 0.17375235259532928, -0.2644071578979492, -0.17892016470432281, 0.06635584682226181, 0.03162924572825432, 0.2662372291088104, 0.15536046028137207, 0.15216834843158722, 0.18821942806243896, -0.3340027928352356, -0.03166865184903145, -0.03600436821579933, -0.2100246399641037, 0.15419401228427887, -0.16220545768737793, 0.19578488171100616, -0.16223226487636566, -0.09104461967945099, 0.09532075375318527, 0.09475622326135635, -0.04159117862582207, 0.053962673991918564], [0.21818095445632935, 0.16930067539215088, 0.03428220748901367, 0.03327859193086624, 0.09462297707796097, -0.17474131286144257, 0.0047891405411064625, 0.005477093625813723, 0.14148761332035065, 0.05082034319639206, 0.03369830548763275, 0.1895388811826706, -0.22425459325313568, -0.05217534303665161, 0.05251825973391533, -0.003441859735175967, -0.14888879656791687, 0.22865915298461914, 0.11509054899215698, -0.14750736951828003, -0.21001777052879333, -0.07345763593912125, 0.0336851067841053, -0.037963688373565674, -0.3581840395927429, 0.08244850486516953, -0.11482453346252441, -0.10230977088212967, -0.32621341943740845, -0.03274841234087944, 0.05821022018790245, -0.027534009888768196], [-0.05297305807471275, 0.0639699175953865, 0.021819669753313065, -0.013277452439069748, 0.13105495274066925, 0.06835198402404785, 0.11999534070491791, 0.0897667184472084, 0.07509767264127731, -0.0014777861069887877, -0.0696854218840599, 0.14894482493400574, 0.21219801902770996, 0.14162921905517578, -0.3446952700614929, -0.05736327916383743, -0.03996303305029869, 0.22928743064403534, 0.013865116983652115, 0.12692511081695557, -0.06757216900587082, -0.30268093943595886, 0.17230916023254395, 0.08019277453422546, -0.04792243242263794, 0.0897529274225235, -0.00018926168559119105, 0.05190004035830498, -0.06127968430519104, 0.006857007276266813, 0.10770806670188904, 0.05312197282910347], [-0.21206630766391754, -0.18974703550338745, 0.1491779386997223, 0.17631281912326813, -0.0668565183877945, -0.08729426562786102, 0.037532106041908264, 0.08565035462379456, 0.16079625487327576, 0.012204093858599663, 0.08341763913631439, -0.02827468328177929, 0.20700150728225708, 0.2171466201543808, -0.16352519392967224, 0.027566373348236084, -0.04786910489201546, 0.07907547801733017, -0.05227292329072952, -0.01236801128834486, -0.019107911735773087, -0.04859672114253044, 0.11157864332199097, -0.016292814165353775, 0.07699717581272125, -0.11281513422727585, 0.29197070002555847, 0.22651632130146027, -0.0266313087195158, -0.03962870314717293, 0.05290087312459946, -0.14147824048995972], [0.08782940357923508, -0.08333441615104675, -0.018566515296697617, -0.0035570738837122917, 0.05056288093328476, 0.057894546538591385, 0.05829517915844917, 0.06124646216630936, -0.3215782642364502, 0.3648812472820282, 0.17114780843257904, 0.0768413096666336, -0.0870870053768158, -0.1865001618862152, -0.13162755966186523, 0.1647356152534485, -0.06954559683799744, 0.013850685209035873, 0.11365238577127457, -0.08638948202133179, 0.020810341462492943, 0.0066322507336735725, -0.3504653871059418, 0.13807165622711182, -0.025148633867502213, -0.09155349433422089, -0.13776832818984985, 0.007158161140978336, 0.0681006982922554, -0.0654844120144844, 0.138211190700531, -0.21879428625106812], [-0.008852430619299412, -0.04189744219183922, -0.10357695817947388, -0.02985217608511448, -0.10693720728158951, -0.01857742667198181, 0.0027056527324020863, 0.3389406204223633, 0.12441211938858032, 0.07218677550554276, -0.1541871279478073, 0.03898549824953079, 0.03361951932311058, -0.17793646454811096, 0.20530813932418823, 0.0537753626704216, 0.048604875802993774, 0.01015882845968008, 0.07055621594190598, 0.10807769745588303, -0.26418501138687134, -0.17309033870697021, 0.07017365097999573, -0.0824279710650444, -0.00483191991224885, -0.0008999314159154892, 0.023547420278191566, 0.12231386452913284, -0.19391712546348572, 0.10170703381299973, 0.18730637431144714, 0.06247364729642868], [0.17459096014499664, 0.0888577401638031, 0.054449617862701416, 0.10898421704769135, -0.14732708036899567, 0.026762861758470535, 0.037120141088962555, 0.0547616183757782, -0.10905268788337708, -0.17634066939353943, -0.09930375963449478, 0.26000669598579407, 0.039055511355400085, 0.06838446855545044, -0.019294308498501778, 0.14715836942195892, 0.015294311568140984, -0.10198309272527695, 0.05771997198462486, 0.013176796957850456, 0.08745298534631729, 0.04282066598534584, -0.25580644607543945, -0.023176483809947968, 0.014949082396924496, 0.15292097628116608, 0.021114123985171318, -0.14781567454338074, -0.29289862513542175, -0.07308902591466904, 0.1387041062116623, -0.2839999794960022], [-0.3472595512866974, -0.11757463216781616, -0.12411360442638397, 0.21685095131397247, 0.13467659056186676, 0.25791609287261963, -0.14724747836589813, -0.12614019215106964, 0.2972170114517212, 0.03701957315206528, -0.1986892819404602, 0.11670110374689102, 0.2077985554933548, 0.08875271677970886, 0.01692584529519081, -0.11631056666374207, 0.23197534680366516, 0.1613231897354126, 0.011174172163009644, -0.0819375291466713, -0.03720453009009361, -0.26820656657218933, 0.24559442698955536, -0.18615758419036865, 0.12439247220754623, 0.11690162122249603, 0.1272493451833725, 0.1371249109506607, -0.027598151937127113, 0.07406505942344666, -0.05468529835343361, -0.05799150839447975], [-0.18174512684345245, -0.004991368390619755, 0.02962762862443924, -0.17091882228851318, 0.09287349134683609, -0.04628736898303032, -0.07603020966053009, 0.0879444107413292, 0.12285405397415161, -0.17968256771564484, 0.17513594031333923, -0.3216592073440552, -0.058425791561603546, 0.09050679951906204, -0.19920049607753754, 0.026670726016163826, -0.11827074736356735, 0.19784630835056305, -0.05368382856249809, 0.0277505274862051, 0.0649714320898056, -0.3450465798377991, 0.012484072707593441, 0.1699988692998886, 0.2056206911802292, -0.18290655314922333, -0.31753239035606384, 0.17969481647014618, 0.010730059817433357, -0.20102813839912415, -0.07711794227361679, -0.1767045557498932], [-0.06289346516132355, 0.15420018136501312, 0.10993222147226334, -0.16257870197296143, 0.08129651844501495, -0.3087371587753296, 0.010164042934775352, 0.29545578360557556, 0.14364971220493317, -0.07139619439840317, 0.12213395535945892, -0.010347946546971798, -0.03853888064622879, -0.05382482707500458, 0.14169970154762268, -0.04377048835158348, -0.07059048116207123, 0.07478597015142441, -0.02148996852338314, -0.08764149993658066, -0.22149114310741425, 0.038940224796533585, -0.11395124346017838, 0.24473150074481964, -0.006590497680008411, -0.13860324025154114, 0.0033960742875933647, 0.05951084941625595, -0.25083428621292114, 0.21376869082450867, 0.07669394463300705, 0.012559905648231506], [-0.2740761935710907, 0.18419818580150604, 0.07337668538093567, -0.25440627336502075, 0.019112542271614075, -0.17632871866226196, 0.12753602862358093, 0.05774395540356636, -0.029994772747159004, 0.21552376449108124, -0.09801797568798065, -0.07001229375600815, -0.07106205075979233, -0.0030700371135026217, -0.0696861743927002, 0.0841052234172821, -0.15826557576656342, -0.10330779105424881, -0.06651033461093903, 0.019269976764917374, -0.5538636445999146, 0.03984016180038452, 0.09134063869714737, 0.12731873989105225, 0.025270869955420494, -0.12235362827777863, -0.0662211999297142, 0.20153945684432983, 0.06969918310642242, 0.1332792490720749, 0.03776954859495163, 0.03348163887858391], [-0.20401142537593842, -0.19243498146533966, -0.08820872753858566, 0.09092527627944946, -0.19182662665843964, 0.058877795934677124, -0.21484193205833435, -0.275825172662735, 0.11423588544130325, 0.06748834997415543, 0.04371322691440582, -0.020545953884720802, -0.00930496770888567, 0.05426301434636116, 0.1697637289762497, -0.2763332426548004, 0.14330993592739105, 0.019632438197731972, 0.11964991688728333, 0.18766914308071136, -0.10296840220689774, -0.002887958660721779, -0.26952433586120605, 0.22887703776359558, 0.09373194724321365, 0.4087366759777069, -0.1925480216741562, 0.0029002842493355274, -0.018923159688711166, -0.030867300927639008, 0.19824711978435516, 0.038842130452394485], [-0.050018180161714554, 0.22478067874908447, -0.0002135448739863932, 0.07847345620393753, -0.15715980529785156, 0.136503666639328, -0.2534976005554199, -0.07937300205230713, -0.16430939733982086, -0.14906778931617737, -0.06831755489110947, 0.002523263683542609, -0.04378051310777664, -0.024665512144565582, 0.030468976125121117, -0.16207008063793182, 0.12037164717912674, -0.20650696754455566, 0.0287331510335207, 0.0803227573633194, 0.06872190535068512, -0.055957943201065063, -0.055182699114084244, 0.03774834796786308, -0.14851634204387665, 0.06024501472711563, -0.2848418653011322, 0.2362946718931198, 0.1740277111530304, -0.2166653722524643, -0.13479000329971313, -0.4055173993110657], [0.12068013846874237, -0.008282317779958248, 0.21546874940395355, -0.12526841461658478, -0.10544946789741516, 0.03833712264895439, -0.10825281590223312, -0.29549750685691833, -0.024733031168580055, 0.048027414828538895, -0.16802968084812164, 0.06798486411571503, -0.19582286477088928, -0.1324981153011322, 0.0060258908197283745, 5.678354136762209e-05, -0.14557521045207977, 0.14509429037570953, 0.10752944648265839, -0.012166490778326988, -0.198651522397995, 0.126045823097229, -0.1768018901348114, -0.06675659120082855, 0.03401174396276474, 0.06763769686222076, 0.020376943051815033, 0.08999614417552948, 0.028770357370376587, -0.06185688078403473, 0.1303587555885315, 0.022120624780654907], [-0.5086849331855774, -0.15417005121707916, -0.2264762818813324, -0.11065128445625305, -0.46251776814460754, -0.21934615075588226, -0.018774215131998062, -0.21453344821929932, -0.3568737208843231, -0.4708962142467499, -0.18121014535427094, 0.5629277229309082, -0.038737788796424866, 0.0023337637539952993, 0.3834797143936157, -0.32677435874938965, -0.2991390824317932, -0.3165666162967682, -0.368310809135437, -0.5745092034339905, 0.7995449900627136, 0.05756837874650955, -0.03712475672364235, -0.03746860474348068, -0.117838054895401, 0.1442125290632248, -0.28143081068992615, -0.1960059404373169, -0.20241497457027435, 0.21918384730815887, -0.2510790526866913, -0.46297359466552734], [-0.029757492244243622, -0.13627147674560547, 0.1827615350484848, 0.09443529695272446, 0.10301555693149567, 0.0980081558227539, -0.06604797393083572, 0.22954848408699036, 0.22790278494358063, -0.09774374216794968, 0.09614712744951248, 0.07905817031860352, 0.10509359836578369, -0.06233278289437294, 0.017960090190172195, -0.2337731420993805, 0.06485950201749802, 0.24946515262126923, 0.03079158626496792, 0.13794882595539093, -0.06301873922348022, 0.11850404739379883, 0.1888102889060974, -0.01813575066626072, 0.08172997832298279, 0.08934181183576584, -0.003901418996974826, 0.04101172462105751, 0.037353284657001495, -0.02198801003396511, -0.11169688403606415, -0.03374900296330452], [-0.1425027698278427, 0.13897433876991272, 0.06316793709993362, 0.06102714687585831, 0.05225473269820213, -0.19801712036132812, 0.13150931894779205, -0.11233334243297577, -0.06959076225757599, -0.12159459292888641, 0.003416592488065362, 0.023844022303819656, 0.022220121696591377, -0.18343916535377502, -0.02300836518406868, 0.017807217314839363, -0.14913888275623322, -0.1177702322602272, 0.19775190949440002, -0.05201989412307739, -0.04154578596353531, 0.029290447011590004, 0.14103005826473236, -0.02629850246012211, -0.08027056604623795, -0.0729215070605278, -0.16502417623996735, 0.14883315563201904, 0.20098558068275452, -0.2559075951576233, 0.04332979395985603, 0.12998923659324646], [0.32733047008514404, -0.009624706581234932, -0.02610243484377861, -0.013442869298160076, 0.09578540921211243, 0.19318725168704987, -0.13939516246318817, -0.11350845545530319, 0.1583743691444397, -0.2776210606098175, -0.15377968549728394, 0.07789162546396255, 0.019610291346907616, 0.15602394938468933, -0.027491562068462372, 0.023799613118171692, -0.053734928369522095, 0.24422839283943176, -0.301263689994812, 0.02362338826060295, 0.21973495185375214, -0.2054789960384369, 0.11834174394607544, -0.12005946785211563, 0.018666861578822136, -0.25744062662124634, 0.05763590335845947, -0.05061761662364006, -0.005136954132467508, 0.06475092470645905, 0.09115679562091827, 0.01453897263854742], [-0.06394501030445099, 0.1408761590719223, -0.13705338537693024, -0.07362095266580582, 0.12018350511789322, -0.041037023067474365, 0.22366422414779663, -0.15912605822086334, -0.051098357886075974, -0.12119210511445999, 0.038183048367500305, 0.06101832911372185, 0.03800959885120392, 0.13504374027252197, -0.038304489105939865, 0.15253600478172302, -0.14043496549129486, -0.2717975378036499, 0.1065954864025116, -0.08569683879613876, -0.15046446025371552, 0.10298484563827515, 0.03711435943841934, -0.2608264088630676, 0.16448679566383362, -0.09970562160015106, 0.1776270568370819, -0.3890219032764435, -0.321858286857605, -0.041016481816768646, 0.2652612328529358, -0.005197504069656134], [0.0625954195857048, 0.18519502878189087, -0.054973140358924866, -0.14255355298519135, -0.15808242559432983, -0.023070113733410835, 0.14918586611747742, 0.14032821357250214, 0.15327024459838867, -0.20560969412326813, -0.014470541849732399, 0.14476564526557922, 0.10525988787412643, -0.131464883685112, 0.11517659574747086, 0.15864098072052002, 0.07223348319530487, -0.03204340487718582, 0.30218347907066345, 0.08786837756633759, -0.0013568851863965392, -0.042932961136102676, -0.09590931236743927, -0.015305517241358757, 0.10184034705162048, -0.11653317511081696, 0.0702347457408905, -0.2035280466079712, -0.12397230416536331, -0.12562038004398346, 0.07595721632242203, -0.2015606164932251], [-0.0315689817070961, 0.03540797904133797, -0.053107067942619324, -0.08826698362827301, -0.058253947645425797, 0.19900956749916077, 0.1312755048274994, 0.1636073887348175, 0.20917411148548126, 0.2037341445684433, 0.046545833349227905, 0.27134498953819275, 0.17607088387012482, 0.049571432173252106, 0.12258946895599365, 0.30355551838874817, -4.44173019786831e-06, -0.03186877444386482, 0.05407791584730148, 0.14475297927856445, -0.1739838719367981, -0.25232598185539246, 0.20235420763492584, -0.07434781640768051, 0.026503533124923706, -0.15888909995555878, -0.07161994278430939, 0.01409902237355709, -0.2522934675216675, -0.2871834337711334, 0.09455568343400955, 0.1440792679786682], [-0.025062857195734978, -0.14526964724063873, 0.0032343147322535515, -0.4450928568840027, -0.10921672731637955, 0.08338872343301773, -0.2222837507724762, 0.08448334783315659, -0.12351778149604797, 0.03561883047223091, -0.12667350471019745, 0.18727652728557587, 0.09043432772159576, 0.03626910224556923, -0.15393194556236267, 0.3790721297264099, -0.1214454397559166, 0.10227310657501221, 0.03491316735744476, 0.11403076350688934, 0.15098407864570618, 0.10962764918804169, -0.13072295486927032, -0.05786086246371269, 0.0452897809445858, 0.08450564742088318, -0.23440366983413696, 0.09867189824581146, -0.14400488138198853, -0.09693271666765213, 0.10579812526702881, -0.17248640954494476], [-0.06746973842382431, 0.1932770311832428, 0.15568353235721588, 0.1981748342514038, 0.03752538189291954, -0.178357794880867, -0.037970203906297684, -0.255424827337265, -0.08032896369695663, -0.08894582837820053, 0.17051641643047333, -0.17306029796600342, -0.004240034148097038, 0.2233654260635376, 0.1489059031009674, 0.03402342647314072, -0.11942142248153687, -0.06151052564382553, -0.04603913798928261, 0.20287130773067474, -0.5364294648170471, -0.18711596727371216, -0.07127248495817184, -0.2702438533306122, 0.04485845938324928, -0.020122213289141655, -0.019156521186232567, 0.10061921924352646, -0.05303516983985901, -0.132317915558815, 0.19522209465503693, 0.11443642526865005], [0.04151849448680878, 0.06075749918818474, 0.057438768446445465, -0.17984896898269653, 0.06933407485485077, -0.1426905244588852, 0.03860674425959587, 0.0716807171702385, 0.17294658720493317, 0.06231836974620819, -0.15073485672473907, -0.2863875925540924, -0.05416523292660713, 0.003900207346305251, -0.1104503944516182, -0.2371336668729782, -0.14709459245204926, 0.11868423223495483, 0.058890581130981445, 0.10466078668832779, -0.36210694909095764, 0.1157757043838501, -0.13988617062568665, -0.23820538818836212, 0.25991159677505493, -0.019309060648083687, -0.02136070653796196, -0.0315408855676651, 0.2776813507080078, -0.23563216626644135, 0.0337534099817276, -0.029277093708515167], [-0.3064441382884979, -0.017411667853593826, -0.1420084536075592, -0.0368851013481617, 0.06037670001387596, -0.08326715975999832, 0.13213229179382324, -0.050535235553979874, 0.08027345687150955, 0.23445677757263184, 0.2606545090675354, 0.00809463020414114, 0.13835543394088745, -0.13304442167282104, 0.27475857734680176, -0.16170421242713928, 0.09728807210922241, 0.08222445845603943, -0.19761629402637482, -0.04349343478679657, -0.06689485907554626, -0.13344979286193848, 0.010677937418222427, 0.25745296478271484, 0.1208682432770729, -0.0840776339173317, -0.21514561772346497, 0.23888184130191803, 0.008988960646092892, -0.137360081076622, 0.21818120777606964, 0.2601909041404724], [-0.0704721137881279, -0.0566009096801281, -0.016861900687217712, -0.12422389537096024, -0.038092415779829025, 0.1956293135881424, -0.07449539750814438, 0.04218043386936188, 0.02096734754741192, 0.14132654666900635, 0.3252057135105133, -0.08996104449033737, 0.14753548800945282, 0.054003193974494934, -0.16051822900772095, -0.15341725945472717, 0.07484675943851471, 0.023642072454094887, -0.06533300131559372, 0.0750756487250328, -0.059618473052978516, 0.033076368272304535, 0.15224330127239227, 0.08877910673618317, -0.10364863276481628, 0.10555610805749893, -0.04047538712620735, -0.15639159083366394, -0.03916332125663757, -0.045398563146591187, -0.18473094701766968, 0.12187465280294418], [0.3420637845993042, -0.02757684700191021, 0.033607449382543564, 0.07799141854047775, 0.006152389571070671, -0.07412298768758774, -0.09062141925096512, 0.2573130130767822, 0.14287425577640533, -0.24719516932964325, -0.24461707472801208, -0.14468878507614136, -0.2173454761505127, -0.027248334139585495, -0.19487980008125305, -0.00290591805242002, -0.08931397646665573, -0.3523198068141937, -0.030775712803006172, 0.0035217918921262026, -0.16763238608837128, -0.011853398755192757, -0.04064536839723587, -0.16378502547740936, 0.06183510273694992, 0.44261956214904785, 0.030995463952422142, 0.06111222878098488, 0.31399744749069214, -0.12485923618078232, 0.08674663305282593, 0.049285873770713806], [-0.3387967050075531, 0.10029254108667374, 0.07431430369615555, 0.05771583691239357, 0.15622968971729279, 0.06614666432142258, -0.1701720952987671, 0.2669866383075714, 0.04616920277476311, -0.07020608335733414, 0.0029742938932031393, 0.054091207683086395, 0.08545833826065063, 0.07930630445480347, 0.20268864929676056, -0.35353219509124756, -0.01495547965168953, 0.096149742603302, -0.25399747490882874, -0.2071736603975296, -0.03673827648162842, -0.18908196687698364, -0.06325681507587433, -0.07945176213979721, 0.09631273150444031, -0.07583673298358917, 0.21381476521492004, 0.049074750393629074, 0.09192781150341034, -0.09595903754234314, 0.05163509398698807, 0.14590716361999512], [0.04128291457891464, -0.026463480666279793, -0.028642121702432632, -0.18029983341693878, -0.16648529469966888, -0.043473001569509506, 0.12078465521335602, -0.02131778933107853, 0.04974488541483879, 0.23469661176204681, 0.0012248576385900378, -0.10439743101596832, -0.0900590717792511, 0.15199227631092072, 0.030579086393117905, -0.1357470601797104, 0.17133384943008423, 0.026182806119322777, -0.14650362730026245, -0.11098312586545944, 0.34194114804267883, 0.011778841726481915, -0.025554277002811432, -0.08981496095657349, 0.12319353967905045, 0.0017625382170081139, -0.08607164770364761, 0.26364389061927795, 0.0019403634360060096, -0.1780959814786911, 0.13514724373817444, -0.03310341387987137], [-0.08456887304782867, -0.153965026140213, 0.02294745109975338, 0.02510320022702217, 0.2809330224990845, -0.18493978679180145, -0.06498239934444427, 0.13056343793869019, 0.1402052342891693, -0.1722988337278366, 0.14685748517513275, -0.008098550140857697, -0.07450006157159805, 0.16929620504379272, -0.09892376512289047, 0.10744593292474747, -0.009064525365829468, 0.17725534737110138, -0.028596729040145874, 0.19706293940544128, -0.028203552588820457, 0.11996322125196457, 0.06029927730560303, 0.1560826301574707, -0.06282532960176468, -0.06004730239510536, 0.07333777844905853, 0.25061458349227905, -0.05267567187547684, -0.050880856812000275, -0.05106496065855026, 0.01788180321455002], [-0.24667730927467346, 0.03558458015322685, 0.27255871891975403, -0.07243669778108597, -0.01263532042503357, -0.06237774342298508, -0.2614975571632385, 0.11063283681869507, 0.08754086494445801, 0.06722617894411087, -0.030805084854364395, 0.23261545598506927, 0.29474422335624695, -0.018210629001259804, -0.08393588662147522, 0.1931958645582199, -0.07823274284601212, -0.12300775945186615, 0.2184453308582306, -0.059538692235946655, -0.1247444599866867, 0.01566927134990692, 0.004786074161529541, 0.010745663195848465, -0.213907852768898, -0.20332740247249603, 0.12170674651861191, -0.12338699400424957, -0.12410545349121094, -0.10847069323062897, 0.08319242298603058, -0.06696603447198868], [0.0002276508166687563, -0.14536850154399872, 0.18300411105155945, -0.0025929450057446957, 0.10567925125360489, -0.22213341295719147, 0.1269543170928955, -0.1333887279033661, -0.05338014289736748, 0.3556616008281708, 0.20205029845237732, 0.3209660053253174, -0.1247926577925682, 0.22664222121238708, 0.1258995085954666, 0.10471412539482117, 0.11436215043067932, 0.07139544934034348, 0.09904123097658157, -0.10037563741207123, 0.031030382961034775, -0.17483116686344147, 0.16689532995224, 0.002472947584465146, -0.009504662826657295, -0.01006617583334446, 0.072588250041008, 0.006361818872392178, -0.23643328249454498, -0.16624726355075836, 0.08542542159557343, -0.03710310533642769], [0.013799810782074928, -0.15691402554512024, -0.08752160519361496, 0.053220346570014954, -0.06034400314092636, 0.044423334300518036, -0.06147332489490509, 0.07629257440567017, 0.16088293492794037, -0.0926104187965393, -0.11012080311775208, -0.11739107221364975, 0.2205066978931427, 0.08868835866451263, -0.1792786568403244, -0.018566133454442024, 0.039709508419036865, 0.08366839587688446, -0.03917253762483597, 0.1240357980132103, -0.1313702017068863, 0.023190805688500404, -0.051813993602991104, -0.1845467984676361, 0.1260608285665512, -0.242773175239563, 0.029868770390748978, -0.2254696786403656, 0.2476143091917038, -0.043991804122924805, -0.1136404499411583, 0.17974606156349182], [-0.013792477548122406, 0.25723689794540405, 0.1224946603178978, 0.010798095725476742, 0.16872352361679077, 0.02386663109064102, 0.0064570605754852295, -0.1955258846282959, -0.1649000346660614, -0.17653506994247437, -0.34356504678726196, -0.004963815677911043, -0.18411050736904144, 0.0671062245965004, 0.16842326521873474, 0.07045061141252518, 0.08172468841075897, -0.13994477689266205, -0.06713754683732986, 0.03878670558333397, -0.5506353974342346, -0.24560736119747162, -0.09555582702159882, -0.08622777462005615, 0.28129902482032776, -0.015222696587443352, -0.15419156849384308, -0.09506302326917648, 0.10160493850708008, 0.1006723940372467, 0.19027620553970337, -0.06263507902622223], [-0.016198042780160904, -0.23462870717048645, -0.25452157855033875, 0.06443291157484055, 0.2774253785610199, -0.009199385531246662, 0.038593389093875885, -0.18563102185726166, -0.031072799116373062, 0.042246267199516296, -0.054998189210891724, -0.1275741308927536, 0.2644771337509155, -0.21726596355438232, 0.1215730533003807, 0.2807832658290863, 0.12250039726495743, 0.12156245112419128, 0.18649595975875854, -0.07914335280656815, 0.16363367438316345, -0.15562069416046143, 0.03856078162789345, -0.157725527882576, 0.15321490168571472, -0.06711196154356003, 0.03479911386966705, -0.07936067879199982, -0.016131959855556488, 0.10312815755605698, -0.047031112015247345, 0.07167553156614304], [-0.2917221486568451, -0.03824007511138916, 0.11483033746480942, -0.09270044416189194, 0.11704249680042267, 0.21270999312400818, -0.12406186759471893, -0.2955148220062256, -0.01886926405131817, 0.13853004574775696, -0.13184763491153717, 0.23219901323318481, -0.07342986762523651, -0.12981675565242767, -0.23101210594177246, 0.11099698394536972, 0.23337729275226593, -0.09752792865037918, 0.12313639372587204, 0.0255790613591671, -0.297421932220459, -0.1377616822719574, -0.2208946794271469, -0.06251887232065201, 0.06044594943523407, -0.10384456813335419, -0.24294309318065643, -0.008681939914822578, 0.09205330908298492, -0.07728935778141022, -0.022772714495658875, 0.22254249453544617], [-0.043797437101602554, 0.008808423765003681, -0.24122214317321777, 0.30296289920806885, 0.1813545823097229, 0.15874487161636353, 0.14137908816337585, -0.05680817365646362, 0.10065574198961258, 0.17168767750263214, -0.10912338644266129, -0.08862043917179108, 0.11440169811248779, 0.028123248368501663, -0.1274191290140152, 0.127071350812912, 0.006038867402821779, 0.3368895649909973, -0.2052106410264969, 0.058956898748874664, 0.10130834579467773, -0.17201289534568787, 0.19464021921157837, -0.035623699426651, 0.042690709233284, 0.21029850840568542, 0.17301082611083984, 0.09633926302194595, 0.04668493941426277, 0.023455075919628143, -0.03216031566262245, -0.09301400184631348], [0.21860116720199585, -0.0033461865969002247, 0.15261347591876984, -0.2114672213792801, -0.07127145677804947, 0.09210134297609329, -0.17860814929008484, 0.002690255641937256, 0.033988360315561295, 0.22451356053352356, 0.09179198741912842, 0.1276417225599289, 0.0415414422750473, 0.045602425932884216, 0.07920362055301666, 0.2977254092693329, 0.1444176733493805, 0.10777794569730759, 0.10255873948335648, -0.10553903132677078, -0.036099739372730255, 0.06443195790052414, 0.10812608897686005, 0.2227945327758789, -0.2628847658634186, 0.24294421076774597, 0.10236157476902008, 0.09472567588090897, -0.13937494158744812, -0.014596778899431229, 0.046740710735321045, 0.06300579011440277], [0.1584669053554535, 0.060061901807785034, -0.018505871295928955, -0.23849539458751678, -0.13051532208919525, 0.07515733689069748, 0.26361575722694397, 0.1307857781648636, -0.06301716715097427, 0.13065482676029205, -0.23027068376541138, -0.12618938088417053, -0.12289872765541077, 0.10333061218261719, 0.06951478123664856, 0.24823340773582458, -0.04281933605670929, 0.2664458155632019, -0.028472553938627243, 0.10715153068304062, -0.7809559106826782, 0.17102941870689392, 0.13230280578136444, -0.18160878121852875, -0.00678488751873374, 0.046205244958400726, 0.12114372849464417, -0.045505475252866745, 0.0579310841858387, -0.06283731013536453, 0.04567766934633255, -0.06685525178909302], [-0.25194472074508667, 0.08075522631406784, -0.16335123777389526, -0.10790438950061798, 0.23152032494544983, 0.058385275304317474, -0.26817604899406433, 0.20518074929714203, 0.0888562873005867, 0.08618824183940887, -0.15265105664730072, -0.06639402359724045, -0.12562420964241028, -0.08985770493745804, -0.27861306071281433, 0.30591002106666565, 0.1384342461824417, -0.16126099228858948, -0.07034941762685776, -0.005669087171554565, 0.04086162894964218, 0.14830240607261658, -0.17588387429714203, -0.13006915152072906, 0.11474072188138962, 0.12630100548267365, 0.19017843902111053, 0.2239798605442047, 0.2395712435245514, -0.07364193350076675, 0.04675505682826042, 0.2590184807777405], [0.2585403025150299, 0.097992442548275, 0.021263284608721733, -0.07146933674812317, 0.139181986451149, 0.035311657935380936, 0.058990150690078735, -0.21840108931064606, 0.04673352092504501, 0.21402746438980103, -0.1363002061843872, 0.08265561610460281, -0.09154192358255386, 0.28446164727211, -0.13084134459495544, 0.20633944869041443, 0.0017962442943826318, 0.1991046667098999, 0.16760680079460144, 0.0713529884815216, -0.006080080289393663, -0.22322550415992737, 0.14463192224502563, -0.041549794375896454, 0.08247675746679306, -0.002127032959833741, 0.19951152801513672, 0.1432339996099472, -0.10615479946136475, -0.07253223657608032, -0.12770448625087738, -0.19838765263557434], [-0.2504549026489258, 0.025291217491030693, -0.0959763154387474, -0.0039748516865074635, 0.15146315097808838, -0.0689166858792305, 0.055069442838430405, 0.09068123251199722, 0.012047119438648224, 0.1905374825000763, 0.05088173225522041, 0.13822577893733978, 0.11716897785663605, -0.06608293205499649, 0.04730526730418205, -0.1288401484489441, 0.051560722291469574, -0.10859640687704086, 0.0548405759036541, 0.07721640914678574, 0.0540279746055603, 0.25901034474372864, 0.05612880736589432, 0.12103069573640823, 0.19831900298595428, 0.038385652005672455, -0.03998514637351036, -0.026707051321864128, 0.24458958208560944, 0.013334528543055058, 0.2494337260723114, 0.0717933401465416], [-0.12185615301132202, -0.11099950969219208, 0.047702860087156296, 0.01233288086950779, 0.22054024040699005, -0.05034415051341057, 0.007827606983482838, -0.07873580604791641, 0.09069155156612396, 0.11185751855373383, 0.2653754949569702, 0.08955186605453491, 0.1476888805627823, 0.09839987754821777, -0.05120197683572769, -0.321762353181839, 0.1988506019115448, 0.11842335760593414, 0.019597938284277916, 0.10448308289051056, -0.1560375690460205, 0.022310106083750725, -0.11963465064764023, 0.05517449229955673, 0.17753787338733673, -0.07546588778495789, -0.09631066769361496, -0.14338120818138123, 0.20014719665050507, -0.1693333238363266, 0.06330233812332153, 0.06764177978038788], [-0.05685931071639061, 0.07216720283031464, -0.03543898090720177, 0.048305705189704895, -0.1118621677160263, 0.16912344098091125, 0.1428396850824356, -0.10973826795816422, 0.06432715058326721, 0.04770902916789055, 0.21276907622814178, -0.1892796754837036, -0.0029543619602918625, 0.1577448546886444, -0.13049285113811493, -0.053169794380664825, 0.1653503179550171, 0.15601982176303864, -0.09363092482089996, -0.15783610939979553, 0.08115966618061066, 0.060118667781353, 0.05277134105563164, -0.08056655526161194, 0.16708894073963165, -0.300963819026947, 0.21373708546161652, -0.056203555315732956, 0.10639853775501251, -0.24712753295898438, -0.1545780748128891, 0.15627363324165344], [-0.10806451737880707, 0.03709892928600311, -0.027653342112898827, -0.29115670919418335, 0.21307699382305145, 0.09637971222400665, -0.17854724824428558, 0.1978285312652588, 0.0005705096991732717, 0.11575189977884293, 0.07020583003759384, 0.11704263836145401, 0.3010978400707245, 0.21250545978546143, 0.2261871099472046, -0.12906993925571442, 0.047478433698415756, 0.23106339573860168, -0.06670615077018738, -0.023028938099741936, -0.23204857110977173, 0.0857219472527504, 0.0014009560691192746, -0.18040870130062103, -0.0962737500667572, 0.0427129827439785, -0.13746990263462067, 0.09450458735227585, 0.33781036734580994, 0.15882828831672668, -0.12811815738677979, -0.16367314755916595], [-0.2125893384218216, 0.10123390704393387, -0.06105734407901764, 0.035279203206300735, 0.07279033958911896, 0.05110189691185951, 0.16347548365592957, 0.06861435621976852, -0.03612243011593819, 0.09678217023611069, -0.09221436083316803, -0.16033610701560974, -0.22027963399887085, 0.29632124304771423, 0.15226978063583374, -0.3931766450405121, 0.17992757260799408, 0.1411115825176239, -0.08660010248422623, -0.1479603499174118, -0.05877437815070152, 0.04082832857966423, 0.1527964472770691, -0.19225482642650604, -0.09458349645137787, -0.14827753603458405, -0.24930617213249207, -0.17990681529045105, -0.04426579922437668, -0.03636142984032631, 0.012825473211705685, 0.07409540563821793], [0.08036017417907715, 0.04735293611884117, -0.039120644330978394, -0.04590558260679245, -0.024945933371782303, -0.08504179120063782, -0.06275960057973862, -0.0642864927649498, -0.16833914816379547, -0.01784886047244072, 0.10981190204620361, 0.011817676946520805, -0.12164625525474548, -0.12042756378650665, -0.30151882767677307, 0.22619397938251495, -0.11503945291042328, -0.1257089227437973, -0.11680921167135239, 0.07256162166595459, 0.18763132393360138, -0.03967534005641937, 0.14972789585590363, -0.24941597878932953, -0.10616681724786758, -0.06761276721954346, 0.12779191136360168, 0.027880877256393433, -0.13583354651927948, 0.08767055720090866, 0.24165116250514984, 0.1467447727918625], [-0.07206258177757263, -0.15425172448158264, -0.10578075796365738, -0.13801752030849457, -0.08178861439228058, 0.07997412234544754, -0.10357245802879333, -0.01226262841373682, 0.2725251615047455, -0.055616747587919235, 0.1558227688074112, 0.04706355184316635, -0.030656928196549416, -0.009164494462311268, 0.06226201355457306, -0.12798868119716644, 0.041520629078149796, -0.023078233003616333, 0.14521494507789612, -0.04025803133845329, 0.2545240819454193, -0.12377430498600006, -0.20403072237968445, 0.27794772386550903, 0.12006508558988571, -0.021631496027112007, -0.04612535983324051, 0.05947230011224747, 0.3157415986061096, -0.046590257436037064, -0.0716133862733841, -0.020293720066547394], [0.21582981944084167, -0.06622005254030228, 0.10866361856460571, -0.01745705120265484, 0.23049554228782654, 0.051773570477962494, -0.022654512897133827, -0.008616861887276173, -0.21912881731987, 0.15128135681152344, -0.1404162496328354, 0.17475290596485138, -0.1715519279241562, 0.22033503651618958, 0.026423370465636253, -0.36380788683891296, -0.12972283363342285, 0.06461811810731888, -0.12313231080770493, -0.1783318966627121, 0.06450387835502625, -0.08103229105472565, 0.03202056512236595, -0.0736418068408966, 0.03922409564256668, -0.06552101671695709, 0.06312481313943863, -0.07214678078889847, -0.2614080607891083, -0.2006499320268631, 0.0341726653277874, 0.059307631105184555], [-0.01998899132013321, -0.10953257977962494, 0.11577834188938141, -0.09660838544368744, -0.1422596573829651, -0.020051326602697372, 0.03969990462064743, -0.296585351228714, 0.09164536744356155, 0.04547823965549469, 0.25634559988975525, -0.0225448627024889, -0.13811039924621582, 0.20811226963996887, 0.05498858168721199, -0.16614346206188202, 0.0763869360089302, -0.1707170605659485, 0.166619673371315, 0.02143419347703457, 0.4105745255947113, 0.20828644931316376, -0.02914176881313324, 0.17776568233966827, -0.02588663063943386, -0.08232429623603821, 0.08244606852531433, 0.13810405135154724, -0.13864223659038544, -0.023638548329472542, -0.04157218337059021, 0.08021359145641327], [-0.0009318086667917669, -0.07657457888126373, -0.04517326131463051, -0.34911274909973145, -0.017385445535182953, -0.18865735828876495, -0.042181674391031265, -0.2189147025346756, 0.1123761534690857, 0.1386227011680603, 0.18896758556365967, 0.18315668404102325, -0.18622919917106628, -0.01735932007431984, 0.08393390476703644, -0.13967862725257874, 0.19870086014270782, 0.09386973083019257, -0.15253876149654388, -0.13344545662403107, 0.2034866362810135, 0.1975385844707489, -0.3260543942451477, 0.4489824175834656, -0.061148080974817276, 0.030589906498789787, -0.09545137733221054, 0.044556956738233566, 0.4281504154205322, 0.1423639953136444, -0.14256352186203003, 0.0632525309920311], [-0.051095083355903625, 0.11225271970033646, -0.10857624560594559, 0.04410596564412117, -0.04642874747514725, 0.18291504681110382, 0.05850597843527794, 0.1286584883928299, 0.1238098293542862, -0.012089722789824009, 0.008614148944616318, -0.09172143787145615, -0.11314657330513, 0.16542990505695343, -0.022403283044695854, -0.1720868945121765, 0.1369101107120514, 0.25787606835365295, 0.1614105999469757, -0.05229797586798668, -0.1258448362350464, -0.03313525766134262, 0.15256094932556152, -0.21901293098926544, 0.12172333151102066, 0.22060607373714447, 0.05480644851922989, -0.04301302134990692, -0.11020594090223312, -0.03154782950878143, -0.09177126735448837, 0.0170766469091177], [-0.07387693226337433, -0.21191294491291046, 0.0337468720972538, -0.009113016538321972, 0.10372047871351242, 0.06382440030574799, 0.038777947425842285, -0.1475018411874771, 0.10795997083187103, 0.035566914826631546, -0.018027236685156822, -0.11635128408670425, 0.039266008883714676, -0.0455201156437397, 0.09226753562688828, 0.08177653700113297, -0.19037045538425446, -0.12098179757595062, 0.06795227527618408, 0.07655437290668488, -0.14211168885231018, -0.07208798825740814, 0.03181342035531998, -0.13868384063243866, 0.06406863778829575, 0.26131924986839294, -0.02258244715631008, -0.3821220397949219, 0.2222261279821396, -0.21507810056209564, 0.023417122662067413, 0.0630466565489769], [0.1275883913040161, 0.04478241130709648, 0.20121176540851593, -0.2956319749355316, 0.22514300048351288, 0.05642480030655861, 0.0864652469754219, -0.03167255222797394, -0.027628561481833458, 0.05295788496732712, 0.04148830100893974, -0.0832379162311554, -0.07188358902931213, 0.1997285783290863, 0.19759820401668549, -0.13988378643989563, -0.12559135258197784, 0.134467214345932, 0.06436334550380707, 0.16729030013084412, 0.25670504570007324, 0.20128852128982544, 0.01420078705996275, 0.2352248877286911, -0.035022348165512085, 0.0029421914368867874, -0.06374339014291763, 0.10221397131681442, -0.08324652910232544, 0.09001470357179642, 0.08450416475534439, -0.07796331495046616], [-0.025972098112106323, -0.2572439908981323, -0.05053982138633728, -0.04361633583903313, -0.06096072867512703, 0.18990294635295868, -0.10769721120595932, -0.09088160842657089, 0.010015207342803478, -0.18116390705108643, -0.21842367947101593, 0.06562572717666626, -0.22993609309196472, -0.0998404324054718, 0.0018628190737217665, -0.007518358528614044, 0.2338019758462906, 0.010083039291203022, 0.16495281457901, 0.12598317861557007, -0.13880881667137146, -0.29502514004707336, -0.1524142473936081, -0.21533367037773132, 0.13941235840320587, -0.05950095131993294, -0.3327300548553467, -0.09206125140190125, 0.08214081823825836, -0.12177536636590958, -0.0006033453391864896, -0.04875453934073448]], "b": [-0.08036340028047562, 0.027917932718992233, 0.08348347991704941, -0.0367853119969368, 0.05099852755665779, -0.015268176794052124, -0.05102148652076721, 0.005484829656779766, 0.010469675995409489, -0.06130005791783333, -0.08028586953878403, 0.01352486852556467, -0.009174996055662632, 0.0022434000857174397, 0.06341908127069473, 0.02159183658659458, -0.05676881968975067, 0.043728385120630264, 0.07251167297363281, 0.07505962252616882, -0.26256871223449707, 0.02278839983046055, 0.006605539470911026, -0.13237929344177246, -0.031308550387620926, 0.03889645263552666, -0.027062714099884033, -0.06373276561498642, -0.1070222482085228, -0.03579727187752724, 0.11696124821901321, 0.02895786054432392]}, {"W": [[-0.1274913102388382], [0.2758506238460541], [0.14100728929042816], [-0.1895783692598343], [-0.14610518515110016], [-0.14693327248096466], [-0.14357103407382965], [0.07082482427358627], [-0.09378784149885178], [-0.12278227508068085], [-0.196669802069664], [0.04973207414150238], [-0.16914841532707214], [-0.2184162586927414], [0.07873842120170593], [0.10679391026496887], [-0.02601361647248268], [-0.07377834618091583], [0.13482613861560822], [0.1885993331670761], [0.20691260695457458], [0.22895550727844238], [-0.08211509138345718], [-0.2400081604719162], [-0.04401043429970741], [0.03605988249182701], [-0.06589317321777344], [-0.14784149825572968], [-0.09618925303220749], [-0.005481461063027382], [0.25449180603027344], [-0.18133684992790222]], "b": [0.048422135412693024]}], "tier_expected_months": {"Family": 32.739226374322456, "Premium": 32.00861701611376, "Standard": 10.467110261189617, "Student": 6.9045959792235685}};
